<?xml version="1.0"?>
<opencv_storage>
<stage7>
  <maxWeakCount>5</maxWeakCount>
  <stageThreshold>-6.5440911054611206e-001</stageThreshold>
  <weakClassifiers>
    <_>
      <internalNodes>
        0 -1 507429 -8.6467416258528829e-004</internalNodes>
      <leafValues>
        8.5915493965148926e-001 -4.6000000834465027e-001</leafValues></_>
    <_>
      <internalNodes>
        0 -1 134763 -8.5378577932715416e-004</internalNodes>
      <leafValues>
        -1. 3.7878721952438354e-001</leafValues></_>
    <_>
      <internalNodes>
        0 -1 421210 7.5818285346031189e-002</internalNodes>
      <leafValues>
        -4.4284439086914063e-001 8.2374387979507446e-001</leafValues></_>
    <_>
      <internalNodes>
        0 -1 495350 -4.0143199265003204e-002</internalNodes>
      <leafValues>
        9.8157739639282227e-001 -5.0192511081695557e-001</leafValues></_>
    <_>
      <internalNodes>
        0 -1 477657 -8.7494372564833611e-005</internalNodes>
      <leafValues>
        -8.9501512050628662e-001 4.7515803575515747e-001</leafValues></_></weakClassifiers></stage7>
</opencv_storage>
